Title: CKT1
Date: Thu Nov  2 17:07:50 2017
Plotname: Transient analysis
Flags: real
No. Variables: 31
No. Points: 101     
Dimensions: 1,101
Command: version 4.3.1
Variables:
 0 time S
 1 L0#branch A
 2 L1#branch A
 3 L2#branch A
 4 L3#branch A
 5 L4#branch A
 6 L5#branch A
 7 L6#branch A
 8 L7#branch A
 9 L8#branch A
 10 V0#branch A
 11 V1#branch A
 12 v(6) V
 13 v(7) V
 14 v(8) V
 15 v(9) V
 16 v(10) V
 17 v(11) V
 18 v(12) V
 19 v(13) V
 20 v(14) V
 21 v(16) V
 22 v(17) V
 23 v(18) V
 24 v(19) V
 25 v(20) V
 26 v(J1) V
 27 v(J2) V
 28 v(J3) V
 29 v(VCC) V
 30 v(VIN) V
Values:
 0	0.000000000000000e+00
	0.000000000000000e+00
	0.000000000000000e+00
	0.000000000000000e+00
	0.000000000000000e+00
	0.000000000000000e+00
	0.000000000000000e+00
	0.000000000000000e+00
	0.000000000000000e+00
	0.000000000000000e+00
	0.000000000000000e+00
	0.000000000000000e+00
	0.000000000000000e+00
	0.000000000000000e+00
	0.000000000000000e+00
	0.000000000000000e+00
	0.000000000000000e+00
	0.000000000000000e+00
	0.000000000000000e+00
	0.000000000000000e+00
	0.000000000000000e+00
	0.000000000000000e+00
	0.000000000000000e+00
	0.000000000000000e+00
	0.000000000000000e+00
	0.000000000000000e+00
	0.000000000000000e+00
	0.000000000000000e+00
	0.000000000000000e+00
	0.000000000000000e+00
	0.000000000000000e+00
 1	1.000000000000000e-12
	-1.000000000000000e-04
	-4.428133487063818e-09
	4.678678244940445e-07
	3.255610704985437e-05
	4.679080718269520e-07
	2.665681260991189e-09
	1.061777585066711e-11
	3.600932942695024e-14
	1.123500293452541e-16
	-3.934541387215379e-06
	4.428133487063818e-09
	-2.257046277254472e-03
	3.792680332710218e-07
	-5.272776731235191e-05
	5.436535048385808e-05
	1.251796321013929e-06
	8.207919106716796e-07
	8.188120743441652e-07
	8.188048954373464e-07
	8.188048722179734e-07
	1.193681971240973e-03
	8.696913215097866e-04
	8.684008220990361e-04
	8.683964454744906e-04
	8.683964318193100e-04
	5.382015721702492e-04
	-5.632711187110928e-02
	5.806388713197039e-02
	5.000000000000000e-05
	0.000000000000000e+00
 2	2.000000000000000e-12
	-9.999999999999999e-05
	2.378852146937063e-08
	2.959953235883122e-06
	2.743272689537338e-05
	2.961060790157217e-06
	7.015680011468043e-08
	1.047675037849784e-09
	1.467465162467347e-11
	2.309927649352874e-13
	-3.808950161614453e-06
	-2.378852146937063e-08
	-9.531528646541872e-05
	-3.405290192340073e-06
	-1.398863627615518e-04
	1.446600177882933e-04
	8.089545862798645e-06
	2.486832217454137e-06
	2.387675655585592e-06
	2.386292768628574e-06
	2.386272499686412e-06
	1.455416602697999e-02
	6.027209865775465e-03
	5.899873968124338e-03
	5.898090390326035e-03
	5.898062315140495e-03
	-2.891290357850212e-03
	-3.626481698097886e-01
	3.744456591831631e-01
	5.000000000000000e-05
	0.000000000000000e+00
 3	3.000000000000000e-12
	-1.000000000000000e-04
	2.775668097203212e-07
	6.805507235957818e-06
	1.907814475632210e-05
	6.812095735952896e-06
	3.852269853682489e-07
	1.213297948033380e-08
	3.021369366436686e-10
	6.846053562580324e-12
	-3.687661909069834e-06
	-2.775668097203212e-07
	-1.286023447303407e-04
	-1.690864554214466e-05
	-1.881081759077565e-04
	1.958106379597193e-04
	2.426181127983010e-05
	4.646630133375341e-06
	3.858437952174002e-06
	3.836811194738115e-06
	3.836302023080992e-06
	6.368301409885911e-02
	1.686198447694676e-02
	1.538732508591857e-02
	1.535060293768448e-02
	1.534977085870553e-02
	-3.373586045004518e-02
	-8.608867818277948e-01
	8.916347110327097e-01
	5.000000000000000e-05
	0.000000000000000e+00
 4	4.000000000000000e-12
	-1.000000000000000e-04
	9.963225636710772e-07
	1.081188288508735e-05
	9.400629304725182e-06
	1.083370702714732e-05
	1.154476701186952e-06
	5.947523919302955e-08
	2.174797434367113e-09
	6.630851078494461e-11
	-3.560598163875442e-06
	-9.963225636710772e-07
	-1.307380343991198e-04
	-4.061326694905600e-05
	-1.899071039212566e-04
	2.003874214166784e-04
	5.022356630817256e-05
	8.278365307964943e-06
	5.277328240981543e-06
	5.149061768763362e-06
	5.144811440207614e-06
	1.768104441520598e-01
	3.649372212281132e-02
	2.926501789959808e-02
	2.900068996058098e-02
	2.899263073091752e-02
	-1.210944457123904e-01
	-1.435185898437099e+00
	1.493554433798308e+00
	5.000000000000000e-05
	0.000000000000000e+00
 5	5.000000000000000e-12
	-1.000000000000000e-04
	2.380854557651563e-06
	1.367406722261214e-05
	6.106502202630829e-07
	1.372706847434682e-05
	2.516755187144955e-06
	1.960249875900566e-07
	9.958728494369709e-09
	3.957507893304234e-10
	-3.409776946238846e-06
	-2.380854557651563e-06
	-1.047915773355435e-04
	-7.017681075596784e-05
	-1.497950826636585e-04
	1.630410336476217e-04
	8.179790531205063e-05
	1.473715591674335e-05
	6.809905328402052e-06
	6.315158568920855e-06
	6.293040022003172e-06
	3.773417694335695e-01
	7.145180418159752e-02
	4.762665148152003e-02
	4.641625361340147e-02
	4.636815350584431e-02
	-2.893724115996387e-01
	-1.951337774358239e+00
	2.045748978874057e+00
	5.000000000000000e-05
	0.000000000000000e+00
 6	5.999999999999999e-12
	-1.000000000000000e-04
	4.475307492063039e-06
	1.447762531264045e-05
	-5.552147634633430e-06
	1.457913098833050e-05
	4.430301257536627e-06
	5.000945774055144e-07
	3.422632734038977e-08
	1.737136146806156e-09
	-3.214306054047400e-06
	-4.475307492063039e-06
	-6.031715417855146e-05
	-9.740548517015799e-05
	-8.198354675544843e-05
	9.808230147341606e-05
	1.112480957858511e-04
	2.520651755547636e-05
	8.800567050921144e-06
	7.353093899757864e-06
	7.267850755444013e-06
	6.705876763450632e-01
	1.321226303025879e-01
	7.134043198364529e-02
	6.718051601949813e-02
	6.696938204894010e-02
	-5.439351670879095e-01
	-2.303566110309876e+00
	2.442555762157738e+00
	5.000000000000000e-05
	0.000000000000000e+00
 7	6.999999999999999e-12
	-1.000000000000000e-04
	7.104633193302398e-06
	1.293744780387341e-05
	-8.169641138293642e-06
	1.309186015379631e-05
	6.631248095289464e-06
	1.057480560701885e-06
	9.549993020548707e-08
	6.099698814913356e-09
	-2.957381940405966e-06
	-7.104633193302398e-06
	-9.778576132090906e-06
	-1.129563156170005e-04
	-5.076203906345774e-06
	2.411594929909023e-05
	1.300198021114660e-04
	3.998054835048116e-05
	1.178476489851394e-05
	8.328586356171791e-06
	8.064674467026669e-06
	1.037109904148498e+00
	2.311386838223833e-01
	1.026110091323838e-01
	9.100381329492885e-02
	9.026244732176164e-02
	-8.635071109529050e-01
	-2.435942713505655e+00
	2.628313000891247e+00
	5.000000000000000e-05
	0.000000000000000e+00
 8	8.000000000000000e-12
	-1.000000000000000e-04
	9.884485538672101e-06
	9.437373123843000e-06
	-7.242760295699332e-06
	9.613411450272544e-06
	8.679799067628693e-06
	1.928399205302885e-06
	2.264578614383887e-07
	1.799441376191241e-08
	-2.632805780837119e-06
	-9.884485538672101e-06
	3.465938249775667e-05
	-1.094300478116488e-04
	6.275870771683732e-05
	-4.071054897378660e-05
	1.317262739469567e-04
	5.789525104855567e-05
	1.640504404827353e-05
	9.381386916391528e-06
	8.693355024708882e-06
	1.434767886280702e+00
	3.798128994975086e-01
	1.454325477990201e-01
	1.179085408076977e-01
	1.157214744500020e-01
	-1.201374274860642e+00
	-2.348405877961083e+00
	2.603195435172611e+00
	5.000000000000000e-05
	0.000000000000000e+00
 9	9.000000000000000e-12
	-1.000000000000000e-04
	1.229928856711646e-05
	4.893401723322557e-06
	-3.574343300058603e-06
	4.999904045570576e-06
	1.007789168846115e-05
	3.109408330029673e-06
	4.700518629531231e-07
	4.604570065981195e-08
	-2.250220133152504e-06
	-1.229928856711646e-05
	6.367458704909583e-05
	-8.373148424301174e-05
	1.076185781830841e-04
	-8.247027272121002e-05
	1.141991362883261e-04
	7.621536311474427e-05
	2.321372549164056e-05
	1.074488959291677e-05
	9.188050978259629e-06
	1.808417622473143e+00
	5.835364921421443e-01
	2.056146303396251e-01
	1.484838657901870e-01
	1.428874065688948e-01
	-1.494872831348829e+00
	-2.089623759351928e+00
	2.416112992517368e+00
	5.000000000000000e-05
	0.000000000000000e+00
 10	9.999999999999999e-12
	-1.000000000000000e-04
	1.382181123226805e-05
	4.946371256906200e-07
	1.508425084859899e-06
	3.654583549552936e-07
	1.041436068049521e-05
	4.505819832673478e-06
	8.715260068411597e-07
	1.044989620850836e-07
	-1.837171046843496e-06
	-1.382181123226805e-05
	7.254205245821878e-05
	-3.802837397531688e-05
	1.224965148053583e-04
	-9.406453463484406e-05
	8.000304237455046e-05
	9.111505428358992e-05
	3.239784822580882e-05
	1.274208630554303e-05
	9.621257930960773e-06
	2.103510341619323e+00
	8.377342967541778e-01
	2.900906168729879e-01
	1.841641202035772e-01
	1.714631693743728e-01
	-1.679922377414382e+00
	-1.740041269376012e+00
	2.147928664096343e+00
	5.000000000000001e-05
	5.206008686296708e-14
 11	1.100000000000000e-11
	-9.999999999999999e-05
	1.404010836659574e-05
	-2.610062632972041e-06
	6.523889958383189e-06
	-3.209761715669663e-06
	9.488684870376671e-06
	5.928875919443268e-06
	1.464297904515447e-06
	2.137477577342859e-07
	-1.435588536006161e-06
	-1.404010836659574e-05
	6.185231202910511e-05
	2.061945986255924e-05
	1.084037391282905e-04
	-7.624504250135663e-05
	3.564807650178305e-05
	9.863931950259252e-05
	4.351474149125489e-05
	1.574110450656134e-05
	1.011974790769903e-05
	2.279278405209133e+00
	1.126010300265217e+00
	4.054063820751796e-01
	2.274335552310694e-01
	2.014543521206551e-01
	-1.706454510197585e+00
	-1.389223826743230e+00
	1.889159451769282e+00
	5.000000000000000e-05
	5.183388889537454e-12
 12	1.200000000000000e-11
	-1.000000000000000e-04
	1.276355229139463e-05
	-3.611436349051905e-06
	1.021661265923847e-05
	-4.946060422321986e-06
	7.379502445368610e-06
	7.123872371946920e-06
	2.252492528720399e-06
	3.987957882716721e-07
	-1.094042660857714e-06
	-1.276355229139463e-05
	3.708165323923653e-05
	8.156314351032726e-05
	7.379882225985324e-05
	-3.690168135619769e-05
	-9.970679643006456e-06
	9.581402166638622e-05
	5.535206159865418e-05
	2.006291317366138e-05
	1.087713270455055e-05
	2.318355081086150e+00
	1.421439974634586e+00
	5.555945068493957e-01
	2.818233967867448e-01
	2.333531957754819e-01
	-1.551299680242989e+00
	-1.112360626908053e+00
	1.717203940742404e+00
	5.000000000000000e-05
	2.640569981512794e-10
 13	1.300000000000000e-11
	-1.000000000000000e-04
	1.008791944722586e-05
	-2.259969662240348e-06
	1.186062847114038e-05
	-4.547063466574987e-06
	4.443913812739703e-06
	7.823898620789072e-06
	3.195455745189367e-06
	6.847745636293162e-07
	-8.601397293162915e-07
	-1.008791944722586e-05
	6.945787968720697e-06
	1.325456897196207e-04
	3.210379830093477e-05
	1.136841681223235e-05
	-4.756434089108497e-05
	8.152145722763330e-05
	6.600442067501356e-05
	2.585166415578944e-05
	1.215492106823171e-05
	2.230999117113551e+00
	1.690879581965689e+00
	7.399519393120293e-01
	3.515717536456466e-01
	2.683432900493813e-01
	-1.226085836998323e+00
	-9.514059456110993e-01
	1.678342627958960e+00
	5.000000000000000e-05
	8.730904769614864e-09
 14	1.400000000000000e-11
	-1.000000000000000e-04
	6.405471443183049e-06
	1.052961399688809e-06
	1.140328278139329e-05
	-2.253880791397694e-06
	1.249344319166717e-06
	7.814763787808103e-06
	4.200490318026833e-06
	1.089377382317902e-06
	-7.734841635525362e-07
	-6.405471443183049e-06
	-1.922696360097656e-05
	1.622759554278398e-04
	-2.379784612519496e-06
	5.501880384585694e-05
	-6.956691779889525e-05
	5.691184009805923e-05
	7.318959507255741e-05
	3.293914780326454e-05
	1.426294380858326e-05
	2.053078574796415e+00
	1.901231509046972e+00
	9.514141268419263e-01
	4.408806256156632e-01
	3.084761663636976e-01
	-7.782178691171887e-01
	-9.061962786214777e-01
	1.779138733335379e+00
	5.000000000000000e-05
	1.875229435856467e-07
 15	1.500000000000000e-11
	-1.000000000000000e-04
	2.368451992244495e-06
	5.390010951658808e-06
	9.406783232499691e-06
	1.246138669040861e-06
	-1.547813041825105e-06
	6.994075490458609e-06
	5.128529042671690e-06
	1.613244615259190e-06
	-8.549249632872552e-07
	-2.368451992244495e-06
	-3.428986800613298e-05
	1.634694208900840e-04
	-1.885822152560855e-05
	8.350791713377551e-05
	-7.193917682865533e-05
	2.532814153382855e-05
	7.473705871747096e-05
	4.074996906679874e-05
	1.751239468358064e-05
	1.838097898686524e+00
	2.026221272782966e+00
	1.176151500532674e+00
	5.528228674302211e-01
	3.567468478693473e-01
	-2.833275178932580e-01
	-9.384370299872937e-01
	1.989555345210936e+00
	5.000000000000000e-05
	2.595065916625587e-06
 16	1.600000000000000e-11
	-9.999999999999999e-05
	-1.055289826697037e-06
	9.531485873593448e-06
	6.812684492167304e-06
	5.029704398246747e-06
	-3.351939694267077e-06
	5.410406719036935e-06
	5.813797244250917e-06
	2.230590647136690e-06
	-1.091631616074458e-06
	1.055289826697037e-06
	-3.522785646204393e-05
	1.358154792410839e-04
	-1.314523940030336e-05
	9.202109249169284e-05
	-5.521095110355094e-05
	-8.195243079498408e-06
	6.911637206504366e-05
	4.829417573455266e-05
	2.214115244353390e-05
	1.644899838083216e+00
	2.052299303014570e+00
	1.394710860666831e+00
	6.880937665173804e-01
	4.169846419473245e-01
	1.714045992921024e-01
	-9.870655997822264e-01
	2.256217184905783e+00
	5.000000000000000e-05
	2.283081671699713e-05
 17	1.700000000000000e-11
	-1.000000000000000e-04
	-2.000924586715734e-06
	1.235571089256126e-05
	4.615918573034030e-06
	8.201841836625408e-06
	-3.772855503224038e-06
	3.273231030596799e-06
	6.094239309080297e-06
	2.883179791525635e-06
	-1.417521812354325e-06
	2.000924586715734e-06
	-2.363003278634478e-05
	8.845847925854694e-05
	1.154917844280777e-05
	8.209232583259308e-05
	-2.440882135494292e-05
	-3.780881651615103e-05
	5.586995938539715e-05
	5.427486648155786e-05
	2.822064723475877e-05
	1.523892094614097e+00
	1.982450258982526e+00
	1.584617155737088e+00
	8.439147385876022e-01
	4.934890115444228e-01
	5.122051631951550e-01
	-9.895253169460181e-01
	2.520755487296166e+00
	5.000000000000000e-05
	1.259254721259536e-04
 18	1.800000000000000e-11
	-1.000000000000000e-04
	3.309999211518264e-06
	1.327255080778894e-05
	3.559700237791929e-06
	1.013336551038382e-05
	-2.727468165207758e-06
	9.288543278543133e-07
	5.846458637811077e-06
	3.480663972498780e-06
	-1.677072463599806e-06
	-3.309999211518264e-06
	-4.656295688361024e-06
	4.270250177857874e-05
	4.634292736754467e-05
	6.024344777748049e-05
	1.227841975642961e-05
	-5.800749089159727e-05
	3.586489347060194e-05
	5.730434648097606e-05
	3.556370790000525e-05
	1.505409494014082e+00
	1.836909810986791e+00
	1.724015549549381e+00
	1.013428743688506e+00
	5.903839489306754e-01
	7.115424173805063e-01
	-9.016220755892099e-01
	2.737032990685277e+00
	5.000000000000000e-05
	4.304361196777401e-04
 19	1.900000000000000e-11
	-1.000000000000000e-04
	1.905285312973132e-05
	1.262276408478881e-05
	3.947945421781010e-06
	1.060409043651489e-05
	-4.657471124922917e-07
	-1.197327469417266e-06
	5.018009871138971e-06
	3.909123835076849e-06
	-1.598918481014842e-06
	-1.905285312973132e-05
	1.507946075093466e-05
	3.207876451935469e-05
	8.046737879251869e-05
	3.545040264486211e-05
	4.581380090987426e-05
	-6.487764642099998e-05
	1.132837370181790e-05
	5.618732726115289e-05
	4.365975048993529e-05
	1.593617804897474e+00
	1.650225364021288e+00
	1.795750228690687e+00
	1.185854251141105e+00
	7.107338420584075e-01
	8.251751713500813e-01
	-7.090133293836997e-01
	2.882453871163414e+00
	5.000000000000000e-05
	9.042481011787965e-04
 20	2.000000000000000e-11
	-1.000000000000000e-04
	4.335400693252293e-05
	1.180325818211329e-05
	5.631147769008757e-06
	9.818968235987763e-06
	2.492742670597197e-06
	-2.685160723173770e-06
	3.650461456623576e-06
	4.047710466701801e-06
	-8.942789968176439e-07
	-4.335400693252293e-05
	3.004130885577669e-05
	8.890953937107057e-05
	1.060550730403259e-04
	1.637223182058615e-05
	6.886000182682636e-05
	-5.714353774367174e-05
	-1.435441423651299e-05
	5.020967634952326e-05
	5.166352989008816e-05
	1.767803591458857e+00
	1.464832141241611e+00
	1.791190352204255e+00
	1.347508132406396e+00
	8.555437091944442e-01
	1.008910982044644e+00
	-4.256736186460932e-01
	2.961214801201413e+00
	5.000000000000000e-05
	1.161049020947434e-03
 21	2.100000000000000e-11
	-1.000000000000000e-04
	6.539116942893078e-05
	1.278160407711744e-05
	8.162612426126670e-06
	8.306395752787257e-06
	5.497379915485598e-06
	-3.215253277084330e-06
	1.887647275057105e-06
	3.791234814839743e-06
	5.040498202079563e-07
	-6.539116942893078e-05
	3.780411162870764e-05
	2.175228626333302e-04
	1.220034353248544e-04
	9.146164127824728e-06
	7.768072633372343e-05
	-3.667645883342000e-05
	-3.709952589736590e-05
	3.937337903104149e-05
	5.845439930080741e-05
	1.990424469781635e+00
	1.322265182810063e+00
	1.713051588348110e+00
	1.483624283569125e+00
	1.022832271816493e+00
	1.474278984371717e+00
	-7.921515243751863e-02
	2.999995492488691e+00
	5.000000000000000e-05
	9.080018391679107e-04
 22	2.200000000000000e-11
	-1.000000000000000e-04
	7.463823732320755e-05
	1.707923089302915e-05
	1.105210299568736e-05
	6.743241157797007e-06
	7.940107935239770e-06
	-2.652708828197593e-06
	-3.540350957288226e-08
	3.075180785955055e-06
	2.332469201637588e-06
	-7.463823732320755e-05
	3.962949714047405e-05
	3.831713054126108e-04
	1.346394889686900e-04
	1.633286269186305e-05
	7.281579142248278e-05
	-8.182612891882720e-06
	-5.283116737152858e-05
	2.453350808463462e-05
	6.276774384688905e-05
	2.219090547567401e+00
	1.254038661387456e+00
	1.576452623391232e+00
	1.580755615739617e+00
	1.206993817784835e+00
	2.386489409794446e+00
	3.106556651839231e-01
	3.038673562228490e+00
	5.000000000000000e-05
	4.315074127517552e-04
 23	2.300000000000000e-11
	-1.000000000000000e-04
	7.002464605509068e-05
	2.496034647535835e-05
	1.399544596023238e-05
	5.772670824584530e-06
	9.403943340776877e-06
	-1.084360050227871e-06
	-1.824944310004616e-06
	1.894924123811866e-06
	4.189392233920840e-06
	-7.002464605509068e-05
	3.926985374519496e-05
	5.342608684211394e-04
	1.545260583897729e-04
	3.729308178879072e-05
	5.840579341822433e-05
	2.199312481883239e-05
	-5.827471071666380e-05
	7.377753588048437e-06
	6.335725368393978e-05
	2.418426941846348e+00
	1.275458441598623e+00
	1.407253087251507e+00
	1.629059385466536e+00
	1.398747642255038e+00
	3.783481237017269e+00
	7.497656197720521e-01
	3.120045473105396e+00
	5.000000000000000e-05
	1.255227457563318e-04
 24	2.400000000000000e-11
	-1.000000000000000e-04
	5.699936906581116e-05
	3.531782745814333e-05
	1.696504377826824e-05
	5.853419103557992e-06
	9.757263019617587e-06
	1.196096304383356e-06
	-3.188653417744375e-06
	3.205805391577168e-07
	5.727704685769458e-06
	-5.699936906581116e-05
	4.084192234449227e-05
	6.262989912603541e-04
	1.912393976064752e-04
	6.931329730525038e-05
	4.067964215811486e-05
	4.763422461968921e-05
	-5.186048136784503e-05
	-9.799901189539206e-06
	5.926529818444631e-05
	2.568776918392426e+00
	1.382865447435648e+00
	1.237490220296098e+00
	1.625043641517369e+00
	1.586079831892860e+00
	5.563437374898139e+00
	1.270858951248553e+00
	3.280209709050049e+00
	5.000000000000000e-05
	2.234260110930515e-05
 25	2.500000000000000e-11
	-1.000000000000000e-04
	4.140767847274351e-05
	4.568296241458363e-05
	2.021907130658846e-05
	7.233308405689764e-06
	9.181261401325498e-06
	3.701937714320180e-06
	-3.853406742110204e-06
	-1.484116385300106e-06
	6.669858952564783e-06
	-4.140767847274351e-05
	4.713434655802947e-05
	6.259703942209190e-04
	2.496296166026898e-04
	1.089186329816586e-04
	2.719737388361059e-05
	6.363179514125331e-05
	-3.417669846493707e-05
	-2.402070860585036e-05
	4.983548949713448e-05
	2.670234636462028e+00
	1.554331212336506e+00
	1.104392495777045e+00
	1.572740971014702e+00
	1.753122563887996e+00
	7.487900943254580e+00
	1.935529438477272e+00
	3.549381113709678e+00
	5.000000000000001e-05
	2.395162679840825e-06
 26	2.600000000000000e-11
	-1.000000000000000e-04
	2.670957046170825e-05
	5.323321847858574e-05
	2.411302996679968e-05
	9.890442862889983e-06
	8.131232921652498e-06
	5.912633219162853e-06
	-3.675626138514688e-06
	-3.273071524695364e-06
	7.083429001014654e-06
	-2.670957046170825e-05
	5.759043800095537e-05
	5.424277838822331e-04
	3.255355500624670e-04
	1.536098150084429e-04
	2.427993484995289e-05
	6.826272983569010e-05
	-8.396080674281177e-06
	-3.244025580712978e-05
	3.506342294409036e-05
	2.745501626501555e+00
	1.757220140656458e+00
	1.038590383103795e+00
	1.485331153732727e+00
	1.883144870406560e+00
	9.277065746295841e+00
	2.807025500093951e+00
	3.947599962926589e+00
	5.000000000000001e-05
	1.598834670553690e-07
 27	2.700000000000000e-11
	-9.999999999999999e-05
	1.469154474330779e-05
	5.612174664610096e-05
	2.882372082599160e-05
	1.359459825612734e-05
	7.184291471389064e-06
	7.435452574808232e-06
	-2.699847358859733e-06
	-4.758671668302968e-06
	7.209391403677921e-06
	-1.469154474330779e-05
	6.869162610529849e-05
	4.102000029330149e-04
	4.068190543529844e-04
	2.017527495957250e-04
	3.555102531829880e-05
	6.352816962343205e-05
	2.048459356781966e-05
	-3.323210660937166e-05
	1.583565158588912e-05
	2.832527462782556e+00
	1.959338572671939e+00
	1.055623208794642e+00
	1.383766454115255e+00
	1.962142101733976e+00
	1.073791960772902e+01
	3.916803585343706e+00
	4.484834055581802e+00
	5.000000000000000e-05
	5.586608290632243e-09
 28	2.800000000000000e-11
	-9.999999999999999e-05
	6.427581297900673e-06
	5.333597820231851e-05
	3.419378289613903e-05
	1.806090888662156e-05
	6.930322014714039e-06
	8.044416376589731e-06
	-1.096494540158392e-06
	-5.618963641294347e-06
	7.081929766119154e-06
	-6.427581297900673e-06
	7.383626225403880e-05
	2.529154013180971e-04
	4.719415220897847e-04
	2.515168456625034e-04
	6.285630490138305e-05
	5.385252260562796e-05
	4.697131869892969e-05
	-2.552752153536343e-05
	-6.333417129047019e-06
	2.980006365265726e+00
	2.137685280126445e+00
	1.159955599275406e+00
	1.293225087901559e+00
	1.976161831914964e+00
	1.174233886823830e+01
	5.259809060682772e+00
	5.175154633943754e+00
	5.000000000000000e-05
	1.469414106425541e-10
 29	2.900000000000000e-11
	-9.999999999999999e-05
	2.108737607076161e-06
	4.547713906459355e-05
	3.947124925602688e-05
	2.288244973745567e-05
	7.776301295202608e-06
	7.837710167299427e-06
	8.039679612784023e-07
	-5.632195184520434e-06
	6.681176146192001e-06
	-2.108737607076161e-06
	6.555567088344783e-05
	9.754288574643027e-05
	4.947069932967794e-04
	2.990025101426651e-04
	1.044400554863514e-04
	4.552447620467975e-05
	6.671584128871370e-05
	-1.084340939165249e-05
	-2.897173815476703e-05
	3.232651660813998e+00
	2.287509064057570e+00
	1.334902746615155e+00
	1.237187349823569e+00
	1.921732274210787e+00
	1.226725734216630e+01
	6.739901896836523e+00
	6.013816785980842e+00
	5.000000000000000e-05
	2.525233527885268e-12
 30	3.000000000000000e-11
	-1.000000000000000e-04
	1.319009092571388e-06
	3.419801407029469e-05
	4.355008600824088e-05
	2.762463630842903e-05
	9.916272814201600e-06
	7.126059586277477e-06
	2.665619894782743e-06
	-4.690672270292048e-06
	6.104351027144455e-06
	-1.319009092571388e-06
	4.159758681269574e-05
	-2.926559334295400e-05
	4.631445785777853e-04
	3.389625800118315e-04
	1.568703875926563e-04
	4.453871931273253e-05
	7.758305916220840e-05
	7.874262888262423e-06
	-4.927289148807684e-05
	3.627397511775112e+00
	2.422159766737936e+00
	1.556048461846699e+00
	1.232065270650798e+00
	1.802176175794383e+00
	1.236324205871009e+01
	8.206767329232795e+00
	6.984934662645014e+00
	5.000000000000000e-05
	2.004124622138871e-14
 31	3.100000000000000e-11
	-1.000000000000000e-04
	3.105117100898523e-06
	2.169243380426546e-05
	4.542620977759716e-05
	3.184886674301679e-05
	1.331132350721950e-05
	6.369242842290005e-06
	4.219113751358311e-06
	-2.838465374730347e-06
	5.582644487944547e-06
	-3.105117100898523e-06
	6.255650579898580e-06
	-1.094355955473831e-04
	3.866678670124583e-04
	3.679927646599725e-04
	2.150828104934997e-04
	5.564277756995065e-05
	7.994408311746387e-05
	2.672737116291414e-05
	-6.435762967442135e-05
	4.188811616813215e+00
	2.570934635421057e+00
	1.796807902053863e+00
	1.284010882546705e+00
	1.629001956481932e+00
	1.214615597923683e+01
	9.509627064342695e+00
	8.059767676066572e+00
	5.000000000000000e-05
	0.000000000000000e+00
 32	3.200000000000001e-11
	-1.000000000000000e-04
	6.246758177659709e-06
	1.021093286404084e-05
	4.432433258730835e-05
	3.518600087395961e-05
	1.771507223498823e-05
	6.111271990579805e-06
	5.313654764338141e-06
	-2.627859080522093e-07
	5.299327658279794e-06
	-6.246758177659709e-06
	-3.591528010745662e-05
	-1.351393110512148e-04
	2.786279776548711e-04
	3.858464872977596e-04
	2.720024478160908e-04
	8.209031508053476e-05
	7.632750535341935e-05
	4.153676081312033e-05
	-7.135941713660173e-05
	4.930773642151723e+00
	2.777658846531111e+00
	2.034886253315773e+00
	1.389057179623372e+00
	1.420996548495395e+00
	1.176431650406133e+01
	1.052326536212848e+01
	9.207329677346040e+00
	5.000000000000000e-05
	0.000000000000000e+00
 33	3.300000000000001e-11
	-1.000000000000000e-04
	9.413369661301316e-06
	1.674450716490815e-06
	3.995794060145370e-05
	3.749661410780386e-05
	2.257321990493834e-05
	6.836178322011664e-06
	6.005840271965592e-06
	2.652066784437152e-06
	5.253834152770077e-06
	-9.413369661301316e-06
	-7.925629031130078e-05
	-1.141651696827486e-04
	1.543344029205279e-04
	3.909395832665752e-04
	3.186997970871093e-04
	1.235751501561138e-04
	7.140237347721536e-05
	4.927442885808668e-05
	-6.867715080587172e-05
	5.833297516309502e+00
	3.089716619917366e+00
	2.258837891601865e+00
	1.528879617756202e+00
	1.206543690654102e+00
	1.137944209051281e+01
	1.117592699532209e+01
	1.039068873381377e+01
	5.000000000000001e-05
	0.000000000000000e+00
 34	3.400000000000001e-11
	-1.000000000000000e-04
	1.165505168026646e-05
	-2.872272862712525e-06
	3.265636219943668e-05
	3.873058488780617e-05
	2.719741078636654e-05
	8.824988645036563e-06
	6.523298578919946e-06
	5.468579205060742e-06
	5.326192609564668e-06
	-1.165505168026646e-05
	-1.142059384589661e-04
	-6.347805850919379e-05
	3.357898039258589e-05
	3.745199525165673e-04
	3.484120784804602e-04
	1.766157906499725e-04
	7.010902285513402e-05
	4.919603343315117e-05
	-5.633453886221041e-05
	6.850921074019008e+00
	3.545309513991613e+00
	2.472707981761690e+00
	1.679857097485700e+00
	1.015198289367253e+00
	1.110698490501075e+01
	1.145608498858542e+01
	1.155829083569985e+01
	5.000000000000000e-05
	0.000000000000000e+00
 35	3.500000000000001e-11
	-9.999999999999999e-05
	1.246285169185643e-05
	-3.249503080441309e-06
	2.342614371967270e-05
	3.864753929692835e-05
	3.092146874502855e-05
	1.215914596796903e-05
	7.193586783289749e-06
	7.777528661286834e-06
	5.412102134165422e-06
	-1.246285169185643e-05
	-1.302238588376178e-04
	-2.169601765640635e-06
	-6.232618704587064e-05
	3.264333610558023e-04
	3.601543544925494e-04
	2.351648910624182e-04
	7.685696270932956e-05
	4.269323683814551e-05
	-3.559680393019149e-05
	7.930536229893848e+00
	4.172297427697649e+00
	2.694457724959218e+00
	1.820139069566372e+00
	8.748472970097829e-01
	1.100880375543453e+01
	1.140375293024480e+01
	1.262781251365609e+01
	5.000000000000000e-05
	0.000000000000000e+00
 36	3.600000000000002e-11
	-1.000000000000000e-04
	1.182615254330424e-05
	-2.984231165069688e-07
	1.389057007157823e-05
	3.686477523854685e-05
	3.335322573646109e-05
	1.660880420838768e-05
	8.362705070879699e-06
	9.299971543388064e-06
	5.489586469755059e-06
	-1.182615254330424e-05
	-1.226922894250144e-04
	5.214366512494836e-05
	-1.186806238808972e-04
	2.475947992111747e-04
	3.590594526076689e-04
	2.902698778883266e-04
	9.436094652429493e-05
	3.342549726196774e-05
	-9.214967761977990e-06
	9.024889814467713e+00
	4.971091847276062e+00
	2.952434423570153e+00
	1.936019487143304e+00
	8.056878653861450e-01
	1.108618906546444e+01
	1.112245983077564e+01
	1.350548644712356e+01
	5.000000000000000e-05
	0.000000000000000e+00
 37	3.700000000000002e-11
	-1.000000000000000e-04
	1.007209901407709e-05
	4.632181721901647e-06
	5.665216249877412e-06
	3.304355533316440e-05
	3.444769120883147e-05
	2.170089471885073e-05
	1.030300977167684e-05
	9.934773672814714e-06
	5.556720936219538e-06
	-1.007209901407709e-05
	-9.388183078663158e-05
	8.737294633008372e-05
	-1.309301215261948e-04
	1.493369388831025e-04
	3.489058851251963e-04
	3.319351355255896e-04
	1.232776237610225e-04
	2.616404999474463e-05
	1.960963552840922e-05
	1.010296481479150e+01
	5.916143974726526e+00
	3.278586708373456e+00
	2.026344409580713e+00
	8.188580441663138e-01
	1.129937919847617e+01
	1.073637731685067e+01
	1.411912500561625e+01
	5.000000000000000e-05
	0.000000000000000e+00
 38	3.800000000000002e-11
	-1.000000000000000e-04
	7.743492872266075e-06
	9.898492075367801e-06
	3.313980363003858e-07
	2.700021523566073e-05
	3.431376026278362e-05
	2.668676223004261e-05
	1.323904404927497e-05
	9.724710688611319e-06
	5.550490823820332e-06
	-7.743492872266075e-06
	-5.050528283837707e-05
	9.531241928055180e-05
	-1.018456362964519e-04
	4.892866196390587e-05
	3.255615894177680e-04
	3.500191938311478e-04
	1.624252071667404e-04
	2.719672190924418e-05
	4.745092510912719e-05
	1.112870793609502e+01
	6.958165251586056e+00
	3.714618635319476e+00
	2.105526600906674e+00
	9.235715860451257e-01
	1.158240126412736e+01
	1.037932461509657e+01
	1.441035207153485e+01
	5.000000000000000e-05
	0.000000000000000e+00
 39	3.900000000000003e-11
	-1.000000000000000e-04
	5.534940416711885e-06
	1.399705495075114e-05
	-1.670164199183080e-06
	1.949069915961274e-05
	3.320715995501577e-05
	3.080127324637039e-05
	1.701692892686512e-05
	9.056701219876513e-06
	5.424206757499680e-06
	-5.534940416711885e-06
	-4.145035474911087e-06
	7.955134429861536e-05
	-4.865973529124193e-05
	-3.628548887837711e-05
	2.826444755597223e-04
	3.463586115920021e-04
	2.059901484711088e-04
	4.083141527728094e-05
	7.198990472085748e-05
	1.205498324665484e+01
	8.018938319981007e+00
	4.275308247746221e+00
	2.207046771730738e+00
	1.106282567251936e+00
	1.185083183589584e+01
	1.014961009037824e+01
	1.442391023610667e+01
	5.000000000000000e-05
	0.000000000000000e+00
 40	4.000000000000003e-11
	-1.000000000000000e-04
	3.913089739114646e-06
	1.610442646447179e-05
	-5.109552192756617e-07
	1.152029959471522e-05
	3.108148542247257e-05
	3.360351620260565e-05
	2.132619143679739e-05
	8.345914065782101e-06
	5.204723764578384e-06
	-3.913089739114646e-06
	3.598294149975078e-05
	4.733602344338480e-05
	1.282076318436377e-05
	-9.459973718845743e-05
	2.180646987399394e-04
	3.275721624196269e-04
	2.472467011767080e-04
	6.941530161808810e-05
	9.261646306418497e-05
	1.282381404496198e+01
	9.046126590726397e+00
	4.961907968246964e+00
	2.369892665813369e+00
	1.355518531762567e+00
	1.204795384837768e+01
	1.009059920507263e+01
	1.422400746096020e+01
	5.000000000000000e-05
	0.000000000000000e+00
 41	4.100000000000003e-11
	-1.000000000000000e-04
	3.229723460520285e-06
	1.575272451879467e-05
	3.220023295222112e-06
	4.422540581562030e-06
	2.765556727497318e-05
	3.483747817203726e-05
	2.562439045541742e-05
	8.095805482458178e-06
	4.955279308370278e-06
	-3.229723460520285e-06
	6.094217647110214e-05
	8.881164553186420e-06
	6.606539222725279e-05
	-1.158663459097972e-04
	1.359543597614027e-04
	2.987916759187769e-04
	2.773323593041972e-04
	1.142047072722856e-04
	1.101646177097235e-04
	1.335882092992961e+01
	9.997524385881643e+00
	5.763328290074785e+00
	2.648903833517924e+00
	1.664928248461060e+00
	1.213101114703005e+01
	1.021640285287002e+01
	1.389634273249877e+01
	5.000000000000001e-05
	0.000000000000000e+00
 42	4.200000000000004e-11
	-1.000000000000000e-04
	3.435255634699210e-06
	1.345430815432135e-05
	8.064572534348388e-06
	-6.263440923135916e-07
	2.295662191279900e-05
	3.471401273876925e-05
	2.917470580042792e-05
	8.688319935057148e-06
	4.727269598228476e-06
	-3.435255634699210e-06
	6.733542383787553e-05
	-2.400436868226021e-05
	9.897947830582660e-05
	-1.020381322618795e-04
	4.946818455213811e-05
	2.607690463483413e-04
	2.906555674960714e-04
	1.710853717764802e-04
	1.278118122881296e-04
	1.363802823418789e+01
	1.084784811850693e+01
	6.628658185113118e+00
	3.082723408018967e+00
	2.026732783023954e+00
	1.210603047750014e+01
	1.047077494099186e+01
	1.356190149225756e+01
	5.000000000000000e-05
	0.000000000000000e+00
 43	4.300000000000004e-11
	-9.999999999999999e-05
	4.306601518784194e-06
	9.984037763709494e-06
	1.270885165356074e-05
	-2.892894751639455e-06
	1.727858060842189e-05
	3.337553449129871e-05
	3.133097934047533e-05
	1.030731140162799e-05
	4.550759436456078e-06
	-4.306601518784194e-06
	5.568055294137592e-05
	-4.365718055023506e-05
	1.060525636674235e-04
	-6.017155833874951e-05
	-2.865641313954372e-05
	2.108125367786317e-04
	2.868707372573420e-04
	2.344294907016971e-04
	1.493957672690419e-04
	1.366491271280794e+01
	1.156484972340397e+01
	7.508340318772177e+00
	3.700329022830319e+00
	2.447563897883091e+00
	1.200012587320385e+01
	1.078665188089234e+01
	1.331330621584847e+01
	5.000000000000000e-05
	0.000000000000000e+00
 44	4.400000000000004e-11
	-1.000000000000000e-04
	5.456942647874347e-06
	6.351432864680210e-06
	1.606014904843141e-05
	-2.346487558335521e-06
	1.129448250164490e-05
	3.093911778675696e-05
	3.176330144823801e-05
	1.281661411662376e-05
	4.454060277777388e-06
	-5.456942647874347e-06
	3.145259704249861e-05
	-4.749511659311689e-05
	8.961755874929601e-05
	-4.278425611902303e-06
	-8.756905523434378e-05
	1.489840159091589e-04
	2.716598830955283e-04
	2.958594686617550e-04
	1.786276988013637e-04
	1.349287804494760e+01
	1.212013075605201e+01
	8.359746864500822e+00
	4.499190531522129e+00
	2.941441225269814e+00
	1.186031179442392e+01
	1.108834971078508e+01
	1.320768264678188e+01
	5.000000000000000e-05
	0.000000000000000e+00
 45	4.500000000000004e-11
	-1.000000000000000e-04
	6.487852175699565e-06
	3.547763925263609e-06
	1.718621342518006e-05
	9.047632680035646e-07
	5.923942127135702e-06
	2.719699469826704e-05
	3.020873559280508e-05
	1.586486278963830e-05
	4.460745047756229e-06
	-6.487852175699565e-06
	1.441058708050505e-06
	-3.501547643838461e-05
	5.442231917662412e-05
	5.012030158069797e-05
	-1.154735469746563e-04
	7.831453133088541e-05
	2.506879902374980e-04
	3.430926407688359e-04
	2.199257450941226e-04
	1.317631667075155e+01
	1.245631241261794e+01
	9.150751424523378e+00
	5.479139212104828e+00
	3.550901474784431e+00
	1.173501360044180e+01
	1.130381338304910e+01
	1.328628287089072e+01
	5.000000000000000e-05
	0.000000000000000e+00
 46	4.600000000000005e-11
	-1.000000000000000e-04
	7.137907162488454e-06
	1.985573969349164e-06
	1.637388835310793e-05
	5.552396508731971e-06
	1.824623722953621e-06
	2.234934131986751e-05
	2.733043104513676e-05
	1.871506311739001e-05
	4.525756067159971e-06
	-7.137907162488454e-06
	-2.585627834681195e-05
	-1.363667813606666e-05
	1.340445154551795e-05
	9.059364848244605e-05
	-1.150107319714189e-04
	7.687047030476255e-06
	2.284594295895169e-04
	3.694977075051172e-04
	2.715807326704084e-04
	1.282103008864886e+01
	1.259926275503491e+01
	9.882892376756644e+00
	6.561113347385845e+00
	4.286458253434840e+00
	1.165600500304767e+01
	1.141467555011091e+01
	1.349587616974422e+01
	5.000000000000000e-05
	0.000000000000000e+00
 47	4.700000000000005e-11
	-1.000000000000000e-04
	7.154399242143396e-06
	2.120279211998525e-06
	1.373392382995619e-05
	1.054319128167658e-05
	-6.484536508037105e-08
	1.633928310869226e-05
	2.347704067662945e-05
	2.039605493890544e-05
	4.608554504492270e-06
	-7.154399242143396e-06
	-4.243037221334336e-05
	1.072766052209926e-05
	-2.215306504096577e-05
	1.045150622491054e-04
	-8.415618002289411e-05
	-5.129872978150784e-05
	2.043188623178512e-04
	3.679970575994960e-04
	3.309047826060427e-04
	1.251693013844413e+01
	1.252481153532075e+01
	1.053891208515220e+01
	7.685479540948334e+00
	5.206514336701890e+00
	1.165400053249036e+01
	1.139629881489959e+01
	1.379836443577660e+01
	5.000000000000000e-05
	0.000000000000000e+00
 48	4.800000000000005e-11
	-9.999999999999999e-05
	6.625446074150352e-06
	3.499160853906070e-06
	1.038573191250682e-05
	1.455092657330019e-05
	2.218789659075686e-07
	9.791863876414913e-06
	1.924083677372730e-05
	2.038447314081352e-05
	4.674771687176794e-06
	-6.625446074150352e-06
	-4.570804499989512e-05
	3.036440655305907e-05
	-4.354793475550490e-05
	9.290508604560966e-05
	-3.631035021072588e-05
	-8.879074414332389e-05
	1.756997408860600e-04
	3.501847042731996e-04
	3.869722600693059e-04
	1.233346680696115e+01
	1.230649932537284e+01
	1.111638241761494e+01
	8.777824053974099e+00
	6.300266517757503e+00
	1.171829024449881e+01
	1.129299731275894e+01
	1.410200688850163e+01
	5.000000000000000e-05
	0.000000000000000e+00
 49	4.900000000000006e-11
	-1.000000000000000e-04
	5.723351755416243e-06
	5.564872057916205e-06
	7.265898203945085e-06
	1.676898160035116e-05
	2.339071048000434e-06
	3.434682188065643e-06
	1.475065748261037e-05
	1.861270761352230e-05
	4.715903699673677e-06
	-5.723351755416243e-06
	-3.644730831805448e-05
	4.078367903172494e-05
	-4.763732163629304e-05
	6.116946106637542e-05
	1.615500357483490e-05
	-9.830618475927123e-05
	1.412692663424307e-04
	3.266324056381707e-04
	4.315240607093953e-04
	1.230164262340111e+01
	1.201734863833281e+01
	1.159989253432818e+01
	9.807076877149381e+00
	7.544862215101077e+00
	1.182793205678990e+01
	1.115156967989987e+01
	1.433976823261513e+01
	5.000000000000001e-05
	0.000000000000000e+00
 50	5.000000000000006e-11
	-9.999999999999999e-05
	4.695953661120289e-06
	7.657710884652168e-06
	5.190383827577102e-06
	1.680057672836467e-05
	5.564783432988419e-06
	-1.871403804768819e-06
	9.940737264813071e-06
	1.527890059671267e-05
	4.753445489647591e-06
	-4.695953661120289e-06
	-1.822087245682348e-05
	3.999664780140277e-05
	-3.577450530695086e-05
	1.862058178046135e-05
	6.082060784271557e-05
	-7.759731629272188e-05
	1.028760718177230e-04
	3.026655606885283e-04
	4.637369006336009e-04
	1.242056827845158e+01
	1.174421667315993e+01
	1.197166972371369e+01
	1.076345853494004e+01
	8.906439466701372e+00
	1.195280346620205e+01
	1.102207451474087e+01
	1.446253400396278e+01
	5.000000000000000e-05
	0.000000000000000e+00
 51	5.100000000000006e-11
	-1.000000000000000e-04
	3.813574815321907e-06
	9.174013760983430e-06
	4.620452909838778e-06
	1.484094271744270e-05
	8.861399868164649e-06
	-5.380247766920815e-06
	4.786301338598652e-06
	1.063599000141785e-05
	4.811800731695851e-06
	-3.813574815321907e-06
	3.020134103548263e-06
	2.944083195561778e-05
	-1.402905637266675e-05
	-2.304511517925280e-05
	8.819487115978330e-05
	-3.137517608083558e-05
	6.635053729083854e-05
	2.779727088746242e-04
	4.876704715214764e-04
	1.265096713942153e+01
	1.157394013592038e+01
	1.222786301680947e+01
	1.164612922020199e+01
	1.035341603595113e+01
	1.206004903218280e+01
	1.094502649645822e+01
	1.445475619102767e+01
	5.000000000000000e-05
	0.000000000000000e+00
 52	5.200000000000007e-11
	-9.999999999999999e-05
	3.268807164714153e-06
	9.780798267269069e-06
	5.531457848777436e-06
	1.154737328107778e-05
	1.123914254386138e-05
	-6.746219640371609e-06
	-5.362110983259744e-07
	4.913410946084796e-06
	4.828370402399413e-06
	-3.268807164714153e-06
	2.125691125216579e-05
	1.306889346449116e-05
	9.640186998690676e-06
	-5.381843944800104e-05
	9.479014824989664e-05
	3.034776947791963e-05
	3.920660901666481e-05
	2.513219618227409e-04
	4.982799106575384e-04
	1.293300976364085e+01
	1.156698857104970e+01
	1.238693359467213e+01
	1.245210544574149e+01
	1.185492256866097e+01
	1.212626085865125e+01
	1.093748888059267e+01
	1.433649375355861e+01
	5.000000000000000e-05
	0.000000000000000e+00
 53	5.300000000000007e-11
	-1.000000000000000e-04
	3.166912650888007e-06
	9.397507354062652e-06
	7.554283117425302e-06
	7.777199311606836e-06
	1.187634759454926e-05
	-5.970075700891707e-06
	-5.647625734466536e-06
	-1.454300503020281e-06
	4.693801826693059e-06
	-3.166912650888007e-06
	3.136406888391277e-05
	-4.193304372644488e-06
	2.746338630382910e-05
	-6.616831340752136e-05
	8.207140116198335e-05
	9.484914613540048e-05
	2.924695621585102e-05
	2.240302619331874e-04
	4.820806486992203e-04
	1.320435510159099e+01
	1.176088711091281e+01
	1.248649850848742e+01
	1.317291888361809e+01
	1.334967661222317e+01
	1.213864526117591e+01
	1.099645899980562e+01
	1.414960684452424e+01
	5.000000000000000e-05
	0.000000000000000e+00
 54	5.400000000000007e-11
	-1.000000000000000e-04
	3.452031421679351e-06
	8.313606464335606e-06
	9.951620731727819e-06
	4.414443367139650e-06
	1.056355732396053e-05
	-3.717563917205932e-06
	-1.010890620769287e-05
	-7.739020989258229e-06
	4.449979787197873e-06
	-3.452031421679351e-06
	3.142173596593941e-05
	-1.782314236344910e-05
	3.473783982524289e-05
	-5.906601442793917e-05
	5.817131454008879e-05
	1.488731582320334e-04
	3.966947892826154e-05
	1.995496941828597e-04
	4.408856498026893e-04
	1.341877850551572e+01
	1.213486889075930e+01
	1.258670683799568e+01
	1.381535751661590e+01
	1.475596901255324e+01
	1.210399152475549e+01
	1.109354410202500e+01
	1.395531616125528e+01
	5.000000000000001e-05
	0.000000000000000e+00
 55	5.500000000000008e-11
	-1.000000000000000e-04
	3.998798390134519e-06
	6.935455447298885e-06
	1.199162225957269e-05
	2.073518428037873e-06
	7.522419961102796e-06
	-8.799770496302835e-07
	-1.352534020228773e-05
	-1.334763397936968e-05
	4.218988951868160e-06
	-3.998798390134519e-06
	2.200568272828814e-05
	-2.506921973530797e-05
	3.021470361303949e-05
	-3.547924332942583e-05
	3.245160421369448e-05
	1.822175425381513e-04
	7.004039283915614e-05
	1.814489090849514e-04
	3.860742059625570e-04
	1.355640074677052e+01
	1.264211524444369e+01
	1.274906889274005e+01
	1.439295776426444e+01
	1.601524797151227e+01
	1.203753669838384e+01
	1.119459168862803e+01
	1.380841909290984e+01
	5.000000000000000e-05
	0.000000000000000e+00
 56	5.600000000000008e-11
	-1.000000000000000e-04
	4.637011998023642e-06
	5.709874666471737e-06
	1.304763330423630e-05
	1.045155929311347e-06
	3.392496983323030e-06
	1.495001282227879e-06
	-1.561912685640566e-05
	-1.780285410502467e-05
	4.043018389762898e-06
	-4.637011998023642e-06
	6.110606831683669e-06
	-2.516356315435108e-05
	1.620092871984566e-05
	-2.041172011306797e-06
	1.407782323299638e-05
	1.896413011178736e-04
	1.155312652329141e-04
	1.726585326703196e-04
	3.233967231679984e-04
	1.362442973593829e+01
	1.321210088105141e+01
	1.303039632249594e+01
	1.492876696886461e+01
	1.709255089643431e+01
	1.195996731883604e+01
	1.126598112095657e+01
	1.375145945759453e+01
	5.000000000000001e-05
	0.000000000000000e+00
 57	5.700000000000008e-11
	-1.000000000000000e-04
	5.198245938838785e-06
	4.979442325003733e-06
	1.280910554544980e-05
	1.183489797862301e-06
	-8.986732388933871e-07
	2.488052700666454e-06
	-1.637558699315386e-05
	-2.064074195891775e-05
	3.885186703351525e-06
	-5.198245938838785e-06
	-1.140512564651734e-05
	-1.962518593541556e-05
	-1.692034787203791e-06
	3.235588494087260e-05
	9.244909439924533e-06
	1.742317874901417e-04
	1.670017748760173e-04
	1.741518973672550e-04
	2.528496369435608e-04
	1.365717205387207e+01
	1.376639806330758e+01
	1.346399663863214e+01
	1.545430851397942e+01
	1.796301332278951e+01
	1.189175415629601e+01
	1.128654573254881e+01
	1.380101506847804e+01
	5.000000000000000e-05
	0.000000000000000e+00
 58	5.800000000000008e-11
	-1.000000000000000e-04
	5.589550926238711e-06
	4.826993945845316e-06
	1.140727561639723e-05
	2.019889252166351e-06
	-4.592601462149325e-06
	1.740809766339005e-06
	-1.607023331868280e-05
	-2.158958339433563e-05
	3.726218998642153e-06
	-5.589550926238711e-06
	-2.625910057396248e-05
	-1.120267257958107e-05
	-1.753853830717611e-05
	6.085321082247932e-05
	1.862010115849414e-05
	1.454582208692763e-04
	2.154887451120748e-04
	1.839058222760328e-04
	1.770370105126153e-04
	1.369686430093221e+01
	1.425505554211791e+01
	1.404347507467491e+01
	1.599667383494822e+01
	1.862070216636078e+01
	1.184419439775849e+01
	1.125751476443224e+01
	1.394236448160687e+01
	5.000000000000000e-05
	0.000000000000000e+00
 59	5.900000000000008e-11
	-1.000000000000000e-04
	5.765812866294253e-06
	5.194482486882783e-06
	9.125415913716021e-06
	3.036253304756312e-06
	-7.129278910667699e-06
	-8.474480222971028e-07
	-1.499059003042619e-05
	-2.035694642879585e-05
	3.584556122580525e-06
	-5.765812866294253e-06
	-3.514797834428723e-05
	-2.475054139376300e-06
	-2.616119017353935e-05
	7.876668018581160e-05
	4.052329904438983e-05
	1.136274159138466e-04
	2.538181030675354e-04
	1.982635000933069e-04
	1.020928582660778e-04
	1.378458622390403e+01
	1.465108881000961e+01
	1.475408883457194e+01
	1.657606623107647e+01
	1.905027813199822e+01
	1.182277127365240e+01
	1.119142656617726e+01
	1.415361672104255e+01
	5.000000000000000e-05
	0.000000000000000e+00
 60	6.000000000000008e-11
	-1.000000000000000e-04
	5.740636423864479e-06
	5.850574576633962e-06
	6.449065361740081e-06
	3.695849901354659e-06
	-8.277344222920256e-06
	-4.959358945266930e-06
	-1.346204894349396e-05
	-1.696219092325602e-05
	3.492698104693247e-06
	-5.740636423864479e-06
	-3.650307865533207e-05
	4.413029392733804e-06
	-2.423762786539253e-05
	8.473564699406731e-05
	7.013518442190734e-05
	8.938832321634923e-05
	2.775279693867750e-04
	2.109610140836933e-04
	3.634627083919126e-05
	1.395302296104136e+01
	1.495906301994752e+01
	1.556183048147431e+01
	1.719802684438600e+01
	1.925963538645405e+01
	1.182583125387589e+01
	1.111474419102142e+01
	1.440222175625050e+01
	5.000000000000001e-05
	0.000000000000000e+00
 61	6.100000000000007e-11
	-1.000000000000000e-04
	5.573685091990036e-06
	6.455525482866902e-06
	3.937461151333860e-06
	3.595170151697525e-06
	-8.212280708084071e-06
	-9.892201234469776e-06
	-1.175017168141787e-05
	-1.186008787315428e-05
	3.461935194011904e-06
	-5.573685091990036e-06
	-3.097706833673401e-05
	8.425583858626739e-06
	-1.137765357416252e-05
	8.109872668053403e-05
	1.009135237072637e-04
	8.121467079612356e-05
	2.841783276031716e-04
	2.143329970051340e-04
	-1.259265667550071e-05
	1.421728854340246e+01
	1.521542069120384e+01
	1.641773274258383e+01
	1.784586513531409e+01
	1.928735689658468e+01
	1.184612275356830e+01
	1.106150910670919e+01
	1.465425058023259e+01
	5.000000000000001e-05
	0.000000000000000e+00
 62	6.200000000000007e-11
	-1.000000000000000e-04
	5.339425160216102e-06
	6.723453192738463e-06
	1.975091787168251e-06
	2.659384067324974e-06
	-7.482205315100182e-06
	-1.474973481564336e-05
	-1.000241060987502e-05
	-5.908681665545126e-06
	3.465461526869655e-06
	-5.339425160216102e-06
	-2.133273061633917e-05
	1.013243805850630e-05
	9.310387773030385e-06
	7.299535908479821e-05
	1.276425827017593e-04
	9.145615156120975e-05
	2.733058408204630e-04
	2.035802005112281e-04
	-4.187680782402941e-05
	1.456544240375856e+01
	1.547484016144848e+01
	1.726754367638638e+01
	1.848325073026218e+01
	1.920140021043029e+01
	1.187459503516179e+01
	1.105741707760561e+01
	1.488866768371457e+01
	5.000000000000001e-05
	0.000000000000000e+00
 63	6.300000000000007e-11
	-1.000000000000000e-04
	5.078236094850903e-06
	6.475674356344553e-06
	7.480049207715816e-07
	9.729531616627936e-07
	-6.642624714467680e-06
	-1.868777587157518e-05
	-8.285105646533538e-06
	5.904711347003219e-08
	3.472546517280872e-06
	-5.078236094850903e-06
	-1.042736779351900e-05
	1.078896160608461e-05
	3.411695406929344e-05
	6.524595629274618e-05
	1.476494400232457e-04
	1.191935492163736e-04
	2.440734211769836e-04
	1.768348673112492e-04
	-5.064849796788903e-05
	1.498141612626717e+01
	1.578877007688937e+01
	1.806010864060464e+01
	1.906709203385316e+01
	1.905991536463248e+01
	1.190634032152768e+01
	1.111927775224678e+01
	1.509967022199050e+01
	5.000000000000000e-05
	0.000000000000000e+00
 64	6.400000000000006e-11
	-9.999999999999999e-05
	4.787919798881065e-06
	5.567905837404614e-06
	3.465508930046550e-07
	-1.293189738062409e-06
	-6.341520863840254e-06
	-2.056054119128730e-05
	-6.671218513075191e-06
	4.983155130257542e-06
	3.470363737381658e-06
	-4.787919798881065e-06
	-1.722127800787091e-06
	1.235325879047672e-05
	5.828927425936435e-05
	6.343037230070449e-05
	1.596675905142184e-04
	1.607805254545498e-04
	1.965606479614056e-04
	1.341113240995271e-04
	-3.815661964208070e-05
	1.545125652230502e+01
	1.622201388742057e+01
	1.872097098213078e+01
	1.953180026325281e+01
	1.892614057993302e+01
	1.194162577246859e+01
	1.126489466575254e+01
	1.529408042267458e+01
	5.000000000000000e-05
	0.000000000000000e+00
 65	6.500000000000006e-11
	-1.000000000000000e-04
	4.426848545073499e-06
	4.204882534536360e-06
	4.013064554595201e-07
	-3.717156679265186e-06
	-6.858704647199866e-06
	-2.011323465605146e-05
	-5.177583198033834e-06
	8.268256451544334e-06
	3.470300678439974e-06
	-4.426848545073499e-06
	2.617035983104700e-06
	1.630854416437674e-05
	7.773117195993752e-05
	6.991848897512999e-05
	1.670472096303908e-04
	2.041855013278862e-04
	1.411188531868447e-04
	8.360836058529683e-05
	-1.288806198586526e-05
	1.594876268291529e+01
	1.678237929247735e+01
	1.922697012176009e+01
	1.985626086589974e+01
	1.885132534750852e+01
	1.198551088050168e+01
	1.147444354310321e+01
	1.549697423195099e+01
	5.000000000000001e-05
	0.000000000000000e+00
 66	6.600000000000006e-11
	-1.000000000000000e-04
	3.932848908609995e-06
	2.593722294945724e-06
	5.656650185909475e-07
	-6.021598871120510e-06
	-8.155757384932390e-06
	-1.740852701304308e-05
	-3.777546134320175e-06
	9.632210988053838e-06
	3.470654366262627e-06
	-3.932848908609995e-06
	1.774773805182195e-06
	2.315423065047542e-05
	9.052438385314090e-05
	8.522612078027105e-05
	1.725152711135292e-04
	2.387919830769703e-04
	8.645874567052885e-05
	3.192462725781867e-05
	1.847007422352831e-05
	1.646473554940448e+01
	1.745599777301017e+01
	1.957185463120091e+01
	2.003098290147012e+01
	1.886027043031479e+01
	1.204555229112602e+01
	1.173030763533799e+01
	1.573286195325311e+01
	5.000000000000000e-05
	0.000000000000000e+00
 67	6.700000000000005e-11
	-1.000000000000000e-04
	3.241198934758365e-06
	9.515741134925634e-07
	4.916333156186486e-07
	-7.992960064591114e-06
	-9.943386301730656e-06
	-1.284158819240611e-05
	-2.413970023894594e-06
	9.034285704504062e-06
	3.447174678045043e-06
	-3.241198934758365e-06
	-4.090132135111226e-06
	3.259887340925787e-05
	9.626194287437839e-05
	1.084722853931405e-04
	1.780605549266357e-04
	2.546594503376746e-04
	3.994305062449858e-05
	-1.468150722979657e-05
	4.940281746871536e-05
	1.699698858914907e+01
	1.820552174559553e+01
	1.976630643614438e+01
	2.005970374808797e+01
	1.896166395687487e+01
	1.212961640175094e+01
	1.201396074561176e+01
	1.602551298083144e+01
	5.000000000000000e-05
	0.000000000000000e+00
 68	6.800000000000005e-11
	-1.000000000000000e-04
	2.297446432186469e-06
	-5.136785348984666e-07
	-1.492821850948176e-07
	-9.469637004255872e-06
	-1.168052104996048e-05
	-7.174239465084969e-06
	-1.020208252268730e-06
	6.708795801708550e-06
	3.359282021332588e-06
	-2.297446432186469e-06
	-1.374521963762864e-05
	4.349346508477196e-05
	9.617794139993275e-05
	1.372117843729550e-04
	1.844337431226917e-04
	2.441940044251413e-04
	7.005103582854415e-06
	-5.007476066429666e-05
	7.348692080920825e-05
	1.754715762704256e+01
	1.896682458406215e+01
	1.983879173918845e+01
	1.996278928508813e+01
	1.914739280745329e+01
	1.224432140829775e+01
	1.230675461991616e+01
	1.639620462653771e+01
	5.000000000000000e-05
	0.000000000000000e+00
 69	6.900000000000005e-11
	-9.999999999999999e-05
	1.088935798370801e-06
	-1.677287549182600e-06
	-1.553935948378106e-06
	-1.037314117120924e-05
	-1.269777499305309e-05
	-1.435602545062305e-06
	4.293475592398202e-07
	3.227341379075722e-06
	3.174634999547238e-06
	-1.088935798370801e-06
	-2.480023143306207e-05
	5.393812669366338e-05
	9.325809604321003e-05
	1.672946577822793e-04
	1.903806556549725e-04
	2.069968181636572e-04
	-1.071336427399786e-05
	-6.960927108762472e-05
	8.591778097856403e-05
	1.811600514670577e+01
	1.965931057873254e+01
	1.983379573122880e+01
	1.978161222500312e+01
	1.938935661454717e+01
	1.239120549049721e+01
	1.259506537832326e+01
	1.685523897897431e+01
	5.000000000000000e-05
	0.000000000000000e+00
 70	7.000000000000004e-11
	-9.999999999999999e-05
	-3.537947461440302e-07
	-2.540998846611062e-06
	-3.739227009925205e-06
	-1.066979415094790e-05
	-1.241182891011807e-05
	3.386084387429839e-06
	1.865446902778786e-06
	-6.587827863222769e-07
	2.877852414525597e-06
	3.537947461440302e-07
	-3.421111634729448e-05
	6.183545764539813e-05
	9.117674659686264e-05
	1.933077865610258e-04
	1.927303189767118e-04
	1.498196189817219e-04
	-1.476540572659648e-05
	-7.047484616782606e-05
	8.415556458526206e-05
	1.869799230179954e+01
	2.020654344472433e+01
	1.979499398576159e+01
	1.956826494545405e+01
	1.964833433187908e+01
	1.256655699007244e+01
	1.287539356379452e+01
	1.740117051366938e+01
	5.000000000000000e-05
	0.000000000000000e+00
 71	7.100000000000004e-11
	-1.000000000000000e-04
	-1.947776307120483e-06
	-3.249523670115286e-06
	-6.470243557489788e-06
	-1.039333400807216e-05
	-1.058383956912425e-05
	6.618372540198541e-06
	3.112378239999504e-06
	-4.123796628145436e-06
	2.463880059735022e-06
	1.947776307120483e-06
	-3.897900931459098e-05
	6.568693379189854e-05
	9.302531388488068e-05
	2.093900275544617e-04
	1.878304233905716e-04
	8.444359930974436e-05
	-9.486902830195046e-06
	-5.352118919977582e-05
	6.901980007191635e-05
	1.927617240398549e+01
	2.056254715134601e+01
	1.975814084409506e+01
	1.937985801525764e+01
	1.988107005754634e+01
	1.276029175092238e+01
	1.315524342823057e+01
	1.801295197046057e+01
	5.000000000000000e-05
	0.000000000000000e+00
 72	7.200000000000004e-11
	-9.999999999999999e-05
	-3.584760675358426e-06
	-4.024439498191434e-06
	-9.318375110391833e-06
	-9.649995295496851e-06
	-7.406576958413225e-06
	8.077919271848951e-06
	3.956496971677969e-06
	-6.505505993296036e-06
	1.933971593313369e-06
	3.584760675358426e-06
	-3.734117767288662e-05
	6.527051105943981e-05
	9.993619582313688e-05
	2.114114622395725e-04
	1.734850108950622e-04
	2.263740063169367e-05
	-1.108355577287770e-07
	-2.357921403134627e-05
	4.434662827150702e-05
	1.982513762837000e+01
	2.072534340921720e+01
	1.974354173935466e+01
	1.926266353261933e+01
	2.005335188101339e+01
	1.295925313345016e+01
	1.344838917041882e+01
	1.865226362747448e+01
	5.000000000000000e-05
	0.000000000000000e+00
 73	7.300000000000003e-11
	-1.000000000000000e-04
	-5.167893179881622e-06
	-5.079717505343380e-06
	-1.179412403997885e-05
	-8.563716038284955e-06
	-3.324467369102949e-06
	7.909356718852855e-06
	4.204572655752232e-06
	-7.378891972898905e-06
	1.296640326142775e-06
	5.167893179881622e-06
	-2.908892779016982e-05
	6.142060156077217e-05
	1.110161173194346e-04
	1.978557987987375e-04
	1.490052928301412e-04
	-2.641409504413164e-05
	9.152278377831725e-06
	1.248009837055168e-05
	1.514794040094028e-05
	2.031469185113727e+01
	2.071875229102845e+01
	1.975743795093963e+01
	1.924640827664443e+01
	2.014324918541340e+01
	1.315166928471961e+01
	1.376906529492194e+01
	1.927384575901084e+01
	5.000000000000001e-05
	0.000000000000000e+00
 74	7.400000000000003e-11
	-1.000000000000000e-04
	-6.632870540901866e-06
	-6.549280949403103e-06
	-1.346181689547044e-05
	-7.256971197517933e-06
	1.021959330318264e-06
	6.546301817323339e-06
	3.769653950106219e-06
	-6.650980605829610e-06
	5.787010967220056e-07
	6.632870540901866e-06
	-1.588812500066417e-05
	5.589888387675792e-05
	1.234717724879160e-04
	1.709028680688524e-04
	1.153626913184880e-04
	-5.696784548049017e-05
	1.567014019783658e-05
	4.652626023800933e-05
	-1.299466103516945e-05
	2.071523019738851e+01
	2.059101982299980e+01
	1.979537309277429e+01
	1.933720404967478e+01
	2.014557358708564e+01
	1.332972469366297e+01
	1.412573351179157e+01
	1.983320771114043e+01
	5.000000000000000e-05
	0.000000000000000e+00
 75	7.500000000000003e-11
	-1.000000000000000e-04
	-7.965858843390092e-06
	-8.430045044593695e-06
	-1.407501207074451e-05
	-5.808388780449021e-06
	4.956641581281804e-06
	4.560238219806768e-06
	2.726210753650951e-06
	-4.574987348573972e-06
	-1.826819214162600e-07
	7.965858843390092e-06
	-5.304525943082785e-07
	5.073537955427201e-05
	1.336380640976711e-04
	1.352216334427129e-04
	7.487091289655632e-05
	-6.754887048385050e-05
	1.871259453758852e-05
	7.135249150516738e-05
	-3.525039769174369e-05
	2.100430004359598e+01
	2.040186285430989e+01
	1.984760508711727e+01
	1.951625759771373e+01
	2.007230799476130e+01
	1.349173796679025e+01
	1.451633749833570e+01
	2.029834030174399e+01
	5.000000000000000e-05
	0.000000000000000e+00
 76	7.600000000000002e-11
	-9.999999999999999e-05
	-9.195215659827919e-06
	-1.059469788227287e-05
	-1.356695848062843e-05
	-4.242611959076561e-06
	7.869677844930128e-06
	2.497472059706860e-06
	1.282128049103661e-06
	-1.619827114554800e-06
	-9.545054269543850e-07
	9.195215659827919e-06
	1.415857229260127e-05
	4.761008356209474e-05
	1.378873836729412e-04
	9.561955183810010e-05
	3.070402183537648e-05
	-5.987423448899523e-05
	1.888044642620831e-05
	8.177782869426990e-05
	-4.805562423543400e-05
	2.116475648557201e+01
	2.020826477162794e+01
	1.990471850480644e+01
	1.974888685841027e+01
	1.994576292419379e+01
	1.364115572334568e+01
	1.492885020535844e+01
	2.064910346084864e+01
	5.000000000000000e-05
	0.000000000000000e+00
 77	7.700000000000002e-11
	-1.000000000000000e-04
	-1.038224606242692e-05
	-1.279898853896442e-05
	-1.207280400458215e-05
	-2.568412159737062e-06
	9.330069170380140e-06
	8.044856380272577e-07
	-2.338988857962338e-07
	1.575440961692819e-06
	-1.714550189831215e-06
	1.038224606242692e-05
	2.589243053919728e-05
	4.735185496561963e-05
	1.334153386727453e-04
	5.611821596784487e-05
	-1.290615412921280e-05
	-3.910180561908327e-05
	1.756334390008560e-05
	7.594555890934074e-05
	-4.984137165046154e-05
	2.119185618208971e+01
	2.005786645241574e+01
	1.996008813646398e+01
	1.998851653602153e+01
	1.979703522568580e+01
	1.378542906803120e+01
	1.534103613678448e+01
	2.087968775573356e+01
	5.000000000000000e-05
	0.000000000000000e+00
 78	7.800000000000001e-11
	-9.999999999999999e-05
	-1.159440159190470e-05
	-1.473845939805023e-05
	-9.864575663330878e-06
	-8.238454897857978e-07
	9.173300277294207e-06
	-2.609681308370400e-07
	-1.456887272062375e-06
	4.358460353817940e-06
	-2.455930099002115e-06
	1.159440159190470e-05
	3.329037908125757e-05
	4.962250615196732e-05
	1.187026238416631e-04
	1.932027683337253e-05
	-5.122259666690769e-05
	-1.242615210322190e-05
	1.611962912368457e-05
	5.556059358710557e-05
	-4.126989066787503e-05
	2.109448102085363e+01
	1.997954520294015e+01
	2.001126363661274e+01
	2.018833576476548e+01
	1.965860236320493e+01
	1.393275615597596e+01
	1.572408924080075e+01
	2.099434968128958e+01
	5.000000000000000e-05
	0.000000000000000e+00
 79	7.900000000000001e-11
	-1.000000000000000e-04
	-1.287625384833465e-05
	-1.611209533621018e-05
	-7.283205972145076e-06
	8.875937717003793e-07
	7.534389680909669e-06
	-6.514105441024884e-07
	-2.075897757220191e-06
	6.198509356206717e-06
	-3.184886805419672e-06
	1.287625384833465e-05
	3.588747430832682e-05
	5.292875588644871e-05
	9.371487343071007e-05
	-1.342062707705080e-05
	-7.978996130662922e-05
	1.257653201441031e-05
	1.524212952747206e-05
	2.529602855169709e-05
	-2.503641156902537e-05
	2.089547875303106e+01
	1.997973843412354e+01
	2.005891178786014e+01
	2.031121932101480e+01
	1.955784377568216e+01
	1.408855428214267e+01
	1.604684101090502e+01
	2.100335814844070e+01
	5.000000000000001e-05
	0.000000000000000e+00
 80	8.000000000000001e-11
	-1.000000000000000e-04
	-1.422441187192336e-05
	-1.668525995774318e-05
	-4.674873929217682e-06
	2.389775162865354e-06
	4.817625433936222e-06
	-4.975818329657491e-07
	-1.914173540524000e-06
	6.789119454845504e-06
	-3.913343939179858e-06
	1.422441187192336e-05
	3.400879783146130e-05
	5.492605203371000e-05
	5.996115687639662e-05
	-4.156589810760485e-05
	-9.536067066993954e-05
	2.964580488365614e-05
	1.465699741374562e-05
	-8.364969903722476e-06
	-5.232866444227271e-06
	2.062940142545124e+01
	2.004386045423921e+01
	2.010433725006477e+01
	2.033698859445769e+01
	1.951182946704569e+01
	1.425241130450865e+01
	1.628036126752593e+01
	2.091985805995535e+01
	5.000000000000000e-05
	0.000000000000000e+00
 81	8.100000000000000e-11
	-1.000000000000000e-04
	-1.557270905791797e-05
	-1.634108339221270e-05
	-2.340048794184019e-06
	3.460118993771607e-06
	1.607380815583839e-06
	-3.693511035338472e-08
	-9.799203525748057e-07
	6.099201742014964e-06
	-4.649782229240223e-06
	1.557270905791797e-05
	2.855474114455258e-05
	5.293652076197874e-05
	2.033298375001666e-05
	-6.491198105603716e-05
	-9.672564993798396e-05
	3.509596614722523e-05
	1.322589483479276e-05
	-3.851937177398122e-05
	1.358741434996667e-05
	2.033757463247697e+01
	2.014221130737604e+01
	2.014670045263748e+01
	2.026580135054358e+01
	1.952449579231557e+01
	1.441628524086918e+01
	1.640240350002889e+01
	2.075812236162386e+01
	5.000000000000000e-05
	0.000000000000000e+00
 82	8.200000000000000e-11
	-1.000000000000000e-04
	-1.679153097953992e-05
	-1.510946059489607e-05
	-5.016773134188030e-07
	3.883601891473144e-06
	-1.460010870656993e-06
	4.729219478992043e-07
	5.246563857503430e-07
	4.365158453267371e-06
	-5.393723752324276e-06
	1.679153097953992e-05
	2.070263415323694e-05
	4.456239440984268e-05
	-2.139490395443494e-05
	-8.319883734853251e-05
	-8.523723993109333e-05
	2.831776740330158e-05
	9.401337738009926e-06
	-5.923634251650478e-05
	2.741344896698374e-05
	2.006110983359243e+01
	2.023856160831168e+01
	2.018108200960112e+01
	2.011731453454987e+01
	1.958676703656137e+01
	1.456442257149140e+01
	1.640084766359257e+01
	2.053312826975301e+01
	5.000000000000000e-05
	0.000000000000000e+00
 83	8.300000000000000e-11
	-1.000000000000000e-04
	-1.770205526523408e-05
	-1.316528531505583e-05
	7.036229856421169e-07
	3.520159505487811e-06
	-3.833125653191667e-06
	8.294646594707090e-07
	2.240791777764325e-06
	2.027393939268111e-06
	-6.135987968642988e-06
	1.770205526523408e-05
	1.158857187701370e-05
	2.826553321816356e-05
	-6.133378318275040e-05
	-9.592934812967321e-05
	-6.478527479497921e-05
	1.147601601544778e-05
	1.877278837977998e-06
	-6.677752546996595e-05
	3.360830664148078e-05
	1.983315784311273e+01
	2.029904132627795e+01
	2.019822702492706e+01
	1.992587804059267e+01
	1.967946572969234e+01
	1.467508897382353e+01
	1.627521626793796e+01
	2.026100298050035e+01
	5.000000000000000e-05
	0.000000000000000e+00
 84	8.399999999999999e-11
	-1.000000000000000e-04
	-1.810319202089395e-05
	-1.079481691067086e-05
	1.214416534711774e-06
	2.363407719729661e-06
	-5.157815212091388e-06
	9.295105543171301e-07
	3.732325179203775e-06
	-3.752501655518880e-07
	-6.862265354729602e-06
	1.810319202089395e-05
	2.090945881410929e-06
	3.803828337296495e-06
	-9.624505850662521e-05
	-1.024871955713265e-04
	-4.106283532927619e-05
	-1.139134512145205e-05
	-9.785940606945858e-06
	-6.043879630592623e-05
	3.138080763129530e-05
	1.967231317729425e+01
	2.029920129261884e+01
	2.018622727249416e+01
	1.973259522071290e+01
	1.977820365362197e+01
	1.472384369930372e+01
	1.603586092949461e+01
	1.995956507567394e+01
	5.000000000000000e-05
	0.000000000000000e+00
 85	8.499999999999999e-11
	-1.000000000000000e-04
	-1.780676319540130e-05
	-8.338651115215095e-06
	1.024564935845520e-06
	5.672399473393419e-07
	-5.338052805161928e-06
	7.750447244474088e-07
	4.590673619762769e-06
	-2.330379019238746e-06
	-7.555860195473417e-06
	1.780676319540130e-05
	-7.187053081422712e-06
	-2.754627552278718e-05
	-1.239884534711601e-04
	-1.025328190501502e-04
	-2.024356448470918e-05
	-3.553788104465451e-05
	-2.477731921987516e-05
	-4.276330559497879e-05
	2.180359884097344e-05
	1.957914254326160e+01
	2.022793698915147e+01
	2.013373696324474e+01
	1.957578003473419e+01
	1.985901757840148e+01
	1.468781532292735e+01
	1.570130670775092e+01
	1.964808568428199e+01
	5.000000000000000e-05
	0.000000000000000e+00
 86	8.599999999999999e-11
	-9.999999999999999e-05
	-1.667527486002250e-05
	-6.126714742261684e-06
	1.691527280092531e-07
	-1.574005925080819e-06
	-4.533112098010165e-06
	4.457840963267551e-07
	4.539965657021592e-06
	-3.467384017806501e-06
	-8.196985691970327e-06
	1.667527486002250e-05
	-1.574404078092232e-05
	-6.300508826481296e-05
	-1.435040369208926e-04
	-9.650307846426188e-05
	-7.485205436917467e-06
	-5.661843756307007e-05
	-4.103336213810984e-05
	-1.895408001972783e-05
	7.404719610760013e-06
	1.953699603955935e+01
	2.008795685975603e+01
	2.003377563369487e+01
	1.948198182229645e+01
	1.990341255268277e+01
	1.455029263921147e+01
	1.529494216618639e+01
	1.934568914559182e+01
	5.000000000000000e-05
	0.000000000000000e+00
 87	8.699999999999998e-11
	-1.000000000000000e-04
	-1.465662112336060e-05
	-4.421085930919967e-06
	-1.274487596181046e-06
	-3.689339296535472e-06
	-3.096814082184596e-06
	5.251623173984087e-08
	3.513403967029520e-06
	-3.635247572753996e-06
	-8.759156653147951e-06
	1.465662112336060e-05
	-2.294913564068655e-05
	-9.852003661730524e-05
	-1.544492760141132e-04
	-8.593882270218433e-05
	-5.736970631777240e-06
	-7.152435845693344e-05
	-5.564748568863866e-05
	4.433795043499232e-06
	-8.532510247342139e-06
	1.951690416913743e+01
	1.989329530834309e+01
	1.988691241167355e+01
	1.945988835193178e+01
	1.990172145488586e+01
	1.430494262482897e+01
	1.484228762711312e+01
	1.906849668199514e+01
	5.000000000000001e-05
	0.000000000000000e+00
 88	8.799999999999998e-11
	-1.000000000000000e-04
	-1.181069730884925e-05
	-3.376107698494534e-06
	-3.173340061740072e-06
	-5.420110035951686e-06
	-1.478721346529376e-06
	-3.113533720076545e-07
	1.678127761019989e-06
	-2.924314604752311e-06
	-9.206395289677321e-06
	1.181069730884925e-05
	-2.794079609042681e-05
	-1.291827318839793e-04
	-1.568257387763839e-04
	-7.341359480617953e-05
	-1.517325321011316e-05
	-7.883265552766136e-05
	-6.560234357411264e-05
	2.116434739435190e-05
	-2.277355858365419e-05
	1.948514797119775e+01
	1.966487384347074e+01
	1.970271617022185e+01
	1.949875416186732e+01
	1.985417947196602e+01
	1.395904504163249e+01
	1.436938191978984e+01
	1.882638017406451e+01
	5.000000000000000e-05
	0.000000000000000e+00
 89	8.899999999999998e-11
	-1.000000000000000e-04
	-8.322610454625971e-06
	-3.017605702210206e-06
	-5.326800482692261e-06
	-6.506981267148849e-06
	-1.140962147249410e-07
	-6.042803695742082e-07
	-6.002666419460322e-07
	-1.628606386348726e-06
	-9.496069209122301e-06
	8.322610454625971e-06
	-2.976923382223921e-05
	-1.498843319729116e-04
	-1.508965331149569e-04
	-6.202592221949493e-05
	-3.334362783978050e-05
	-7.883839067342194e-05
	-6.863747900530542e-05
	2.687701307026784e-05
	-3.285764915662642e-05
	1.941146261861090e+01
	1.942533003302445e+01
	1.949877511906048e+01
	1.957173237099530e+01
	1.976967548182066e+01
	1.353509805938961e+01
	1.390186210068690e+01
	1.862059496335780e+01
	5.000000000000000e-05
	0.000000000000000e+00
 90	8.999999999999997e-11
	-1.000000000000000e-04
	-4.495167793502599e-06
	-3.241168870801168e-06
	-7.472500597733528e-06
	-6.849565261730489e-06
	6.708738313407163e-07
	-8.468772089263655e-07
	-2.845609978579667e-06
	-1.606164623781724e-07
	-9.589530569963875e-06
	4.495167793502599e-06
	-2.772928829184592e-05
	-1.563182782044688e-04
	-1.374018983178211e-04
	-5.462117225313522e-05
	-5.592480279640045e-05
	-7.320191962855013e-05
	-6.399625695729552e-05
	2.010759135463088e-05
	-3.759632019334709e-05
	1.927587158669152e+01
	1.919433263764893e+01
	1.929726328475133e+01
	1.964312272388727e+01
	1.966264427463113e+01
	1.306990529507347e+01
	1.346384151832203e+01
	1.844336579089391e+01
	5.000000000000000e-05
	0.000000000000000e+00
 91	9.099999999999997e-11
	-1.000000000000000e-04
	-7.134779548789486e-07
	-3.832799642229071e-06
	-9.317147686566658e-06
	-6.523164222023074e-06
	7.181768968105379e-07
	-1.106034408323069e-06
	-4.588737937005566e-06
	1.058101170422107e-06
	-9.466714750727231e-06
	7.134779548789486e-07
	-2.169793441415283e-05
	-1.462088044637890e-04
	-1.177850620926115e-04
	-5.300984153875022e-05
	-7.784082271803756e-05
	-6.431925001349697e-05
	-5.279042318705463e-05
	2.530247999465035e-06
	-3.724751905844787e-05
	1.907267708107678e+01
	1.898538885092542e+01
	1.911981782854609e+01
	1.967753949145179e+01
	1.954893638698351e+01
	1.261027339315511e+01
	1.307611725248940e+01
	1.827984252672701e+01
	5.000000000000000e-05
	0.000000000000000e+00
 92	9.199999999999997e-11
	-1.000000000000000e-04
	2.616833527927720e-06
	-4.513823706702180e-06
	-1.058596760905573e-05
	-5.749781507381512e-06
	5.102508976369068e-08
	-1.459928429701424e-06
	-5.483619061920967e-06
	1.702466095557089e-06
	-9.135897284773326e-06
	-2.616833527927720e-06
	-1.229514967154217e-05
	-1.201930183716391e-04
	-9.413622064531270e-05
	-5.743129673335978e-05
	-9.448317646340815e-05
	-5.460758069244464e-05
	-3.782011129806656e-05
	-2.158630400663216e-05
	-3.333202026646927e-05
	1.881089509711237e+01
	1.880469343593590e+01
	1.898213519066546e+01
	1.964862196414020e+01
	1.944170184037425e+01
	1.220550265146465e+01
	1.275411913345270e+01
	1.811205856565991e+01
	5.000000000000000e-05
	0.000000000000000e+00
 93	9.299999999999996e-11
	-1.000000000000000e-04
	5.141801951336945e-06
	-5.001440401862589e-06
	-1.107524018669546e-05
	-4.832456710395270e-06
	-1.157587473388172e-06
	-1.957846749002805e-06
	-5.391573364483747e-06
	1.620023318490449e-06
	-8.632335442311790e-06
	-5.141801951336945e-06
	-8.056892425218154e-07
	-8.176941147672607e-05
	-6.882846212134976e-05
	-6.642322402884671e-05
	-1.027574710456433e-04
	-4.592755025788480e-05
	-2.287563770570012e-05
	-4.651060831951443e-05
	-2.814117927551375e-05
	1.851124643374058e+01
	1.865194124339846e+01
	1.888990069097608e+01
	1.954520010092239e+01
	1.934830018823657e+01
	1.189861443792524e+01
	1.250649653887406e+01
	1.792390284832758e+01
	5.000000000000000e-05
	0.000000000000000e+00
 94	9.399999999999996e-11
	-9.999999999999999e-05
	6.619318472481711e-06
	-5.067638640331560e-06
	-1.069216360022740e-05
	-4.071318657519694e-06
	-2.647718399398900e-06
	-2.590545696977195e-06
	-4.412203379703818e-06
	8.605988606200029e-07
	-8.008361710365082e-06
	-6.619318472481711e-06
	1.108242360867952e-05
	-3.638988633051980e-05
	-4.405387144448086e-05
	-7.713842317282258e-05
	-1.016847507694397e-04
	-3.929830174926394e-05
	-1.172981394345284e-05
	-6.647439960908102e-05
	-2.406672401744750e-05
	1.820064336805124e+01
	1.852245078631979e+01
	1.883730935392284e+01
	1.937357475843892e+01
	1.926897636249021e+01
	1.171903500182406e+01
	1.233496292978398e+01
	1.770580957212244e+01
	5.000000000000000e-05
	0.000000000000000e+00
 95	9.499999999999996e-11
	-1.000000000000000e-04
	6.953574486028164e-06
	-4.582478688608996e-06
	-9.472184967428101e-06
	-3.684924614645549e-06
	-4.145556779210931e-06
	-3.282813319174149e-06
	-2.853539744740124e-06
	-3.462319759364134e-07
	-7.322481097173902e-06
	-6.953574486028164e-06
	2.162033053213234e-05
	9.692592630579619e-06
	-2.147820520014062e-05
	-8.602175353690179e-05
	-9.237007666375148e-05
	-3.493352907908836e-05
	-7.119999388675826e-06
	-7.708393487984814e-05
	-2.293320359956362e-05
	1.790580960476881e+01
	1.840966640642358e+01
	1.880866415450015e+01
	1.915548738856841e+01
	1.919756890989765e+01
	1.167840905580785e+01
	1.223536996085981e+01
	1.745793868427265e+01
	5.000000000000000e-05
	0.000000000000000e+00
 96	9.599999999999995e-11
	-1.000000000000000e-04
	6.203116248862201e-06
	-3.537006181444027e-06
	-7.571387749928867e-06
	-3.758698455599080e-06
	-5.424584518291471e-06
	-3.911739663331689e-06
	-1.149093273644480e-06
	-1.659233240092335e-06
	-6.631718518001893e-06
	-6.203116248862201e-06
	2.932432082279461e-05
	5.038266039739352e-05
	-2.104652209251545e-06
	-8.964705659821474e-05
	-7.737914825223858e-05
	-3.250490757297990e-05
	-1.000894436041588e-05
	-7.639852226750506e-05
	-2.551128093697696e-05
	1.764789416457008e+01
	1.830720579658022e+01
	1.878264413710816e+01
	1.892230654978214e+01
	1.912397209148805e+01
	1.176962080546959e+01
	1.219951351154771e+01
	1.719105666768181e+01
	5.000000000000000e-05
	0.000000000000000e+00
 97	9.699999999999995e-11
	-1.000000000000000e-04
	4.567456207953835e-06
	-2.045766016855369e-06
	-5.237983248527375e-06
	-4.232583816218080e-06
	-6.339923564238924e-06
	-4.344850999656184e-06
	2.564722019179698e-07
	-2.720910520491953e-06
	-5.986205220746321e-06
	-4.567456207953835e-06
	3.320973261257500e-05
	8.049916350268305e-05
	1.367319984843293e-05
	-8.546839185593506e-05
	-5.981238647658134e-05
	-3.147488942576872e-05
	-1.933142596594176e-05
	-6.536878307833880e-05
	-3.133700862318234e-05
	1.743943858768683e+01
	1.821000181476224e+01
	1.873808111627647e+01
	1.870690912412821e+01
	1.903761241573885e+01
	1.196842122739107e+01
	1.221706650644160e+01
	1.692500439755101e+01
	5.000000000000000e-05
	0.000000000000000e+00
 98	9.799999999999995e-11
	-1.000000000000000e-04
	2.355538891227060e-06
	-3.283290342762060e-07
	-2.771193793833599e-06
	-4.926575075522745e-06
	-6.832936062866156e-06
	-4.484911107593253e-06
	1.021883240879830e-06
	-3.253991997622223e-06
	-5.423670963044752e-06
	-2.355538891227060e-06
	3.289480552800513e-05
	9.647013246214098e-05
	2.589686820376000e-05
	-7.230456620391167e-05
	-4.243666132146576e-05
	-3.134938767012110e-05
	-3.230032436494420e-05
	-4.746710504654102e-05
	-3.887605236339242e-05
	1.728407003688244e+01
	1.811455469646117e+01
	1.865965710048806e+01
	1.853545597411673e+01
	1.893095073823481e+01
	1.223726076911914e+01
	1.227716634173857e+01
	1.668528717299473e+01
	5.000000000000000e-05
	0.000000000000000e+00
 99	9.899999999999994e-11
	-1.000000000000000e-04
	-6.226058579413505e-08
	1.330520609193482e-06
	-4.767755188700044e-07
	-5.592524832305922e-06
	-6.913509131547452e-06
	-4.305412422362770e-06
	9.923275317350497e-07
	-3.132298513030839e-06
	-4.963970569672820e-06
	6.226058579413505e-08
	2.858676673780569e-05
	9.695515245828850e-05
	3.482767269109693e-05
	-5.051289867485110e-05
	-2.711029620222286e-05
	-3.176663736193027e-05
	-4.518752178110896e-05
	-2.762520266871927e-05
	-4.597732542783499e-05
	1.717838751297800e+01
	1.801866513664996e+01
	1.854195101800974e+01
	1.842134213409785e+01
	1.880204610093729e+01
	1.253112351818185e+01
	1.236941017196841e+01
	1.649866417899513e+01
	5.000000000000000e-05
	0.000000000000000e+00
 100	9.999999999999994e-11
	-1.000000000000000e-04
	-2.322892796183249e-06
	2.647475943526623e-06
	1.384402366106380e-06
	-5.985220365206558e-06
	-6.636104673213470e-06
	-3.864536764686851e-06
	2.339878551539110e-07
	-2.411491831684569e-06
	-4.605459063594794e-06
	2.322892796183249e-06
	2.101764444509828e-05
	8.328900345608968e-05
	4.080593037776330e-05
	-2.193840871328176e-05
	-1.453509353091530e-05
	-3.243177412209255e-05
	-5.446185468573374e-05
	-1.072066237077021e-05
	-5.055304677053868e-05
	1.711460191728570e+01
	1.792116341292346e+01
	1.839086464675941e+01
	1.836242543374100e+01
	1.865552154271781e+01
	1.280588393660295e+01
	1.248410598676210e+01
	1.638714981590934e+01
	5.000000000000000e-05
	0.000000000000000e+00
